digraph Tree {
node [shape=box] ;
0 [label="international plan <= 0.0\nentropy = 1.0\nsamples = 5700\nvalue = [2850, 2850]"] ;
1 [label="total day minutes <= 1.185\nentropy = 0.976\nsamples = 4503\nvalue = [2664, 1839]"] ;
0 -> 1 [labeldistance=2.5, labelangle=45, headlabel="True"] ;
2 [label="number customer service calls <= 1.097\nentropy = 0.878\nsamples = 3527\nvalue = [2478, 1049]"] ;
1 -> 2 ;
3 [label="total day minutes <= 0.772\nentropy = 0.626\nsamples = 2815\nvalue = [2374, 441]"] ;
2 -> 3 ;
4 [label="number customer service calls <= 1.08\nentropy = 0.501\nsamples = 2401\nvalue = [2136, 265]"] ;
3 -> 4 ;
5 [label="number customer service calls <= 0.339\nentropy = 0.539\nsamples = 2113\nvalue = [1852, 261]"] ;
4 -> 5 ;
6 [label="total eve minutes <= -0.637\nentropy = 0.488\nsamples = 2072\nvalue = [1852, 220]"] ;
5 -> 6 ;
7 [label="number vmail messages <= 1.55\nentropy = 0.205\nsamples = 530\nvalue = [513, 17]"] ;
6 -> 7 ;
8 [label="total intl calls <= 3.868\nentropy = 0.074\nsamples = 445\nvalue = [441, 4]"] ;
7 -> 8 ;
9 [label="total day calls <= -1.342\nentropy = 0.059\nsamples = 442\nvalue = [439, 3]"] ;
8 -> 9 ;
10 [label="total eve calls <= -0.834\nentropy = 0.316\nsamples = 35\nvalue = [33, 2]"] ;
9 -> 10 ;
11 [label="total intl calls <= -0.398\nentropy = 0.811\nsamples = 8\nvalue = [6, 2]"] ;
10 -> 11 ;
12 [label="total day calls <= -1.691\nentropy = 1.0\nsamples = 4\nvalue = [2, 2]"] ;
11 -> 12 ;
13 [label="entropy = 0.0\nsamples = 1\nvalue = [1, 0]"] ;
12 -> 13 ;
14 [label="total night minutes <= -1.437\nentropy = 0.918\nsamples = 3\nvalue = [1, 2]"] ;
12 -> 14 ;
15 [label="entropy = 0.0\nsamples = 1\nvalue = [1, 0]"] ;
14 -> 15 ;
16 [label="entropy = 0.0\nsamples = 2\nvalue = [0, 2]"] ;
14 -> 16 ;
17 [label="entropy = 0.0\nsamples = 4\nvalue = [4, 0]"] ;
11 -> 17 ;
18 [label="entropy = 0.0\nsamples = 27\nvalue = [27, 0]"] ;
10 -> 18 ;
19 [label="account length <= 2.258\nentropy = 0.025\nsamples = 407\nvalue = [406, 1]"] ;
9 -> 19 ;
20 [label="entropy = 0.0\nsamples = 398\nvalue = [398, 0]"] ;
19 -> 20 ;
21 [label="account length <= 2.397\nentropy = 0.503\nsamples = 9\nvalue = [8, 1]"] ;
19 -> 21 ;
22 [label="total day calls <= 0.377\nentropy = 1.0\nsamples = 2\nvalue = [1, 1]"] ;
21 -> 22 ;
23 [label="entropy = 0.0\nsamples = 1\nvalue = [0, 1]"] ;
22 -> 23 ;
24 [label="entropy = 0.0\nsamples = 1\nvalue = [1, 0]"] ;
22 -> 24 ;
25 [label="entropy = 0.0\nsamples = 7\nvalue = [7, 0]"] ;
21 -> 25 ;
26 [label="total intl calls <= 4.681\nentropy = 0.918\nsamples = 3\nvalue = [2, 1]"] ;
8 -> 26 ;
27 [label="entropy = 0.0\nsamples = 1\nvalue = [0, 1]"] ;
26 -> 27 ;
28 [label="entropy = 0.0\nsamples = 2\nvalue = [2, 0]"] ;
26 -> 28 ;
29 [label="total intl minutes <= 0.005\nentropy = 0.617\nsamples = 85\nvalue = [72, 13]"] ;
7 -> 29 ;
30 [label="total day calls <= -1.23\nentropy = 0.884\nsamples = 43\nvalue = [30, 13]"] ;
29 -> 30 ;
31 [label="entropy = 0.0\nsamples = 6\nvalue = [0, 6]"] ;
30 -> 31 ;
32 [label="number customer service calls <= -0.289\nentropy = 0.7\nsamples = 37\nvalue = [30, 7]"] ;
30 -> 32 ;
33 [label="entropy = 0.0\nsamples = 22\nvalue = [22, 0]"] ;
32 -> 33 ;
34 [label="account length <= 0.347\nentropy = 0.997\nsamples = 15\nvalue = [8, 7]"] ;
32 -> 34 ;
35 [label="entropy = 0.0\nsamples = 7\nvalue = [7, 0]"] ;
34 -> 35 ;
36 [label="total intl calls <= -1.211\nentropy = 0.544\nsamples = 8\nvalue = [1, 7]"] ;
34 -> 36 ;
37 [label="entropy = 0.0\nsamples = 1\nvalue = [1, 0]"] ;
36 -> 37 ;
38 [label="entropy = 0.0\nsamples = 7\nvalue = [0, 7]"] ;
36 -> 38 ;
39 [label="entropy = 0.0\nsamples = 42\nvalue = [42, 0]"] ;
29 -> 39 ;
40 [label="total night minutes <= -1.102\nentropy = 0.562\nsamples = 1542\nvalue = [1339, 203]"] ;
6 -> 40 ;
41 [label="total intl minutes <= -1.313\nentropy = 0.09\nsamples = 176\nvalue = [174, 2]"] ;
40 -> 41 ;
42 [label="total intl minutes <= -1.41\nentropy = 0.592\nsamples = 14\nvalue = [12, 2]"] ;
41 -> 42 ;
43 [label="entropy = 0.0\nsamples = 12\nvalue = [12, 0]"] ;
42 -> 43 ;
44 [label="entropy = 0.0\nsamples = 2\nvalue = [0, 2]"] ;
42 -> 44 ;
45 [label="entropy = 0.0\nsamples = 162\nvalue = [162, 0]"] ;
41 -> 45 ;
46 [label="number customer service calls <= -1.187\nentropy = 0.603\nsamples = 1366\nvalue = [1165, 201]"] ;
40 -> 46 ;
47 [label="account length <= -0.09\nentropy = 0.353\nsamples = 316\nvalue = [295, 21]"] ;
46 -> 47 ;
48 [label="total intl calls <= -1.211\nentropy = 0.06\nsamples = 142\nvalue = [141, 1]"] ;
47 -> 48 ;
49 [label="total night minutes <= 1.102\nentropy = 0.811\nsamples = 4\nvalue = [3, 1]"] ;
48 -> 49 ;
50 [label="entropy = 0.0\nsamples = 3\nvalue = [3, 0]"] ;
49 -> 50 ;
51 [label="entropy = 0.0\nsamples = 1\nvalue = [0, 1]"] ;
49 -> 51 ;
52 [label="entropy = 0.0\nsamples = 138\nvalue = [138, 0]"] ;
48 -> 52 ;
53 [label="total eve minutes <= 2.47\nentropy = 0.515\nsamples = 174\nvalue = [154, 20]"] ;
47 -> 53 ;
54 [label="total night minutes <= 2.676\nentropy = 0.467\nsamples = 171\nvalue = [154, 17]"] ;
53 -> 54 ;
55 [label="total night minutes <= 0.194\nentropy = 0.414\nsamples = 168\nvalue = [154, 14]"] ;
54 -> 55 ;
56 [label="total night minutes <= -0.616\nentropy = 0.613\nsamples = 86\nvalue = [73, 13]"] ;
55 -> 56 ;
57 [label="entropy = 0.0\nsamples = 29\nvalue = [29, 0]"] ;
56 -> 57 ;
58 [label="total eve minutes <= -0.431\nentropy = 0.775\nsamples = 57\nvalue = [44, 13]"] ;
56 -> 58 ;
59 [label="entropy = 0.0\nsamples = 3\nvalue = [0, 3]"] ;
58 -> 59 ;
60 [label="total day calls <= -0.047\nentropy = 0.691\nsamples = 54\nvalue = [44, 10]"] ;
58 -> 60 ;
61 [label="entropy = 0.0\nsamples = 22\nvalue = [22, 0]"] ;
60 -> 61 ;
62 [label="total night calls <= -0.925\nentropy = 0.896\nsamples = 32\nvalue = [22, 10]"] ;
60 -> 62 ;
63 [label="total intl minutes <= -0.809\nentropy = 0.65\nsamples = 6\nvalue = [1, 5]"] ;
62 -> 63 ;
64 [label="entropy = 0.0\nsamples = 1\nvalue = [1, 0]"] ;
63 -> 64 ;
65 [label="entropy = 0.0\nsamples = 5\nvalue = [0, 5]"] ;
63 -> 65 ;
66 [label="total day calls <= 0.327\nentropy = 0.706\nsamples = 26\nvalue = [21, 5]"] ;
62 -> 66 ;
67 [label="total intl minutes <= 0.148\nentropy = 0.994\nsamples = 11\nvalue = [6, 5]"] ;
66 -> 67 ;
68 [label="number vmail messages <= 0.395\nentropy = 0.65\nsamples = 6\nvalue = [1, 5]"] ;
67 -> 68 ;
69 [label="entropy = 0.0\nsamples = 5\nvalue = [0, 5]"] ;
68 -> 69 ;
70 [label="entropy = 0.0\nsamples = 1\nvalue = [1, 0]"] ;
68 -> 70 ;
71 [label="entropy = 0.0\nsamples = 5\nvalue = [5, 0]"] ;
67 -> 71 ;
72 [label="entropy = 0.0\nsamples = 15\nvalue = [15, 0]"] ;
66 -> 72 ;
73 [label="total day minutes <= -1.126\nentropy = 0.095\nsamples = 82\nvalue = [81, 1]"] ;
55 -> 73 ;
74 [label="total day minutes <= -1.146\nentropy = 0.371\nsamples = 14\nvalue = [13, 1]"] ;
73 -> 74 ;
75 [label="entropy = 0.0\nsamples = 13\nvalue = [13, 0]"] ;
74 -> 75 ;
76 [label="entropy = 0.0\nsamples = 1\nvalue = [0, 1]"] ;
74 -> 76 ;
77 [label="entropy = 0.0\nsamples = 68\nvalue = [68, 0]"] ;
73 -> 77 ;
78 [label="entropy = 0.0\nsamples = 3\nvalue = [0, 3]"] ;
54 -> 78 ;
79 [label="entropy = 0.0\nsamples = 3\nvalue = [0, 3]"] ;
53 -> 79 ;
80 [label="number customer service calls <= -0.431\nentropy = 0.661\nsamples = 1050\nvalue = [870, 180]"] ;
46 -> 80 ;
81 [label="entropy = 0.0\nsamples = 34\nvalue = [0, 34]"] ;
80 -> 81 ;
82 [label="total night calls <= -0.353\nentropy = 0.594\nsamples = 1016\nvalue = [870, 146]"] ;
80 -> 82 ;
83 [label="total day minutes <= 0.659\nentropy = 0.264\nsamples = 335\nvalue = [320, 15]"] ;
82 -> 83 ;
84 [label="account length <= -0.101\nentropy = 0.2\nsamples = 321\nvalue = [311, 10]"] ;
83 -> 84 ;
85 [label="entropy = 0.0\nsamples = 138\nvalue = [138, 0]"] ;
84 -> 85 ;
86 [label="account length <= 0.815\nentropy = 0.306\nsamples = 183\nvalue = [173, 10]"] ;
84 -> 86 ;
87 [label="total night minutes <= 0.015\nentropy = 0.431\nsamples = 113\nvalue = [103, 10]"] ;
86 -> 87 ;
88 [label="total day calls <= 0.352\nentropy = 0.672\nsamples = 51\nvalue = [42, 9]"] ;
87 -> 88 ;
89 [label="total intl minutes <= 0.757\nentropy = 0.211\nsamples = 30\nvalue = [29, 1]"] ;
88 -> 89 ;
90 [label="entropy = 0.0\nsamples = 29\nvalue = [29, 0]"] ;
89 -> 90 ;
91 [label="entropy = 0.0\nsamples = 1\nvalue = [0, 1]"] ;
89 -> 91 ;
92 [label="total day calls <= 1.404\nentropy = 0.959\nsamples = 21\nvalue = [13, 8]"] ;
88 -> 92 ;
93 [label="total eve minutes <= 0.578\nentropy = 0.997\nsamples = 15\nvalue = [7, 8]"] ;
92 -> 93 ;
94 [label="number customer service calls <= 0.18\nentropy = 0.845\nsamples = 11\nvalue = [3, 8]"] ;
93 -> 94 ;
95 [label="entropy = 0.0\nsamples = 7\nvalue = [0, 7]"] ;
94 -> 95 ;
96 [label="account length <= 0.425\nentropy = 0.811\nsamples = 4\nvalue = [3, 1]"] ;
94 -> 96 ;
97 [label="entropy = 0.0\nsamples = 3\nvalue = [3, 0]"] ;
96 -> 97 ;
98 [label="entropy = 0.0\nsamples = 1\nvalue = [0, 1]"] ;
96 -> 98 ;
99 [label="entropy = 0.0\nsamples = 4\nvalue = [4, 0]"] ;
93 -> 99 ;
100 [label="entropy = 0.0\nsamples = 6\nvalue = [6, 0]"] ;
92 -> 100 ;
101 [label="number vmail messages <= 2.404\nentropy = 0.119\nsamples = 62\nvalue = [61, 1]"] ;
87 -> 101 ;
102 [label="entropy = 0.0\nsamples = 60\nvalue = [60, 0]"] ;
101 -> 102 ;
103 [label="account length <= 0.764\nentropy = 1.0\nsamples = 2\nvalue = [1, 1]"] ;
101 -> 103 ;
104 [label="entropy = 0.0\nsamples = 1\nvalue = [1, 0]"] ;
103 -> 104 ;
105 [label="entropy = 0.0\nsamples = 1\nvalue = [0, 1]"] ;
103 -> 105 ;
106 [label="entropy = 0.0\nsamples = 70\nvalue = [70, 0]"] ;
86 -> 106 ;
107 [label="total night minutes <= 0.973\nentropy = 0.94\nsamples = 14\nvalue = [9, 5]"] ;
83 -> 107 ;
108 [label="entropy = 0.0\nsamples = 9\nvalue = [9, 0]"] ;
107 -> 108 ;
109 [label="entropy = 0.0\nsamples = 5\nvalue = [0, 5]"] ;
107 -> 109 ;
110 [label="total day calls <= 1.179\nentropy = 0.706\nsamples = 681\nvalue = [550, 131]"] ;
82 -> 110 ;
111 [label="total intl calls <= 1.005\nentropy = 0.639\nsamples = 586\nvalue = [491, 95]"] ;
110 -> 111 ;
112 [label="total day calls <= 0.324\nentropy = 0.695\nsamples = 508\nvalue = [413, 95]"] ;
111 -> 112 ;
113 [label="total night calls <= 0.103\nentropy = 0.776\nsamples = 380\nvalue = [293, 87]"] ;
112 -> 113 ;
114 [label="total eve calls <= -0.021\nentropy = 0.328\nsamples = 83\nvalue = [78, 5]"] ;
113 -> 114 ;
115 [label="total eve calls <= -0.492\nentropy = 0.581\nsamples = 36\nvalue = [31, 5]"] ;
114 -> 115 ;
116 [label="entropy = 0.0\nsamples = 26\nvalue = [26, 0]"] ;
115 -> 116 ;
117 [label="total intl calls <= -0.42\nentropy = 1.0\nsamples = 10\nvalue = [5, 5]"] ;
115 -> 117 ;
118 [label="entropy = 0.0\nsamples = 5\nvalue = [5, 0]"] ;
117 -> 118 ;
119 [label="entropy = 0.0\nsamples = 5\nvalue = [0, 5]"] ;
117 -> 119 ;
120 [label="entropy = 0.0\nsamples = 47\nvalue = [47, 0]"] ;
114 -> 120 ;
121 [label="total intl minutes <= -1.213\nentropy = 0.85\nsamples = 297\nvalue = [215, 82]"] ;
113 -> 121 ;
122 [label="entropy = 0.0\nsamples = 29\nvalue = [29, 0]"] ;
121 -> 122 ;
123 [label="total eve minutes <= 1.577\nentropy = 0.888\nsamples = 268\nvalue = [186, 82]"] ;
121 -> 123 ;
124 [label="total eve minutes <= 0.689\nentropy = 0.916\nsamples = 248\nvalue = [166, 82]"] ;
123 -> 124 ;
125 [label="account length <= 0.337\nentropy = 0.773\nsamples = 163\nvalue = [126, 37]"] ;
124 -> 125 ;
126 [label="total intl minutes <= 0.828\nentropy = 0.89\nsamples = 114\nvalue = [79, 35]"] ;
125 -> 126 ;
127 [label="total night minutes <= 1.197\nentropy = 0.958\nsamples = 92\nvalue = [57, 35]"] ;
126 -> 127 ;
128 [label="total night minutes <= -0.151\nentropy = 0.905\nsamples = 81\nvalue = [55, 26]"] ;
127 -> 128 ;
129 [label="total night minutes <= -0.65\nentropy = 1.0\nsamples = 44\nvalue = [22, 22]"] ;
128 -> 129 ;
130 [label="total intl calls <= -0.398\nentropy = 0.619\nsamples = 13\nvalue = [11, 2]"] ;
129 -> 130 ;
131 [label="total day minutes <= -1.01\nentropy = 0.971\nsamples = 5\nvalue = [3, 2]"] ;
130 -> 131 ;
132 [label="total night calls <= 0.873\nentropy = 0.918\nsamples = 3\nvalue = [1, 2]"] ;
131 -> 132 ;
133 [label="entropy = 0.0\nsamples = 2\nvalue = [0, 2]"] ;
132 -> 133 ;
134 [label="entropy = 0.0\nsamples = 1\nvalue = [1, 0]"] ;
132 -> 134 ;
135 [label="entropy = 0.0\nsamples = 2\nvalue = [2, 0]"] ;
131 -> 135 ;
136 [label="entropy = 0.0\nsamples = 8\nvalue = [8, 0]"] ;
130 -> 136 ;
137 [label="total day calls <= -1.168\nentropy = 0.938\nsamples = 31\nvalue = [11, 20]"] ;
129 -> 137 ;
138 [label="entropy = 0.0\nsamples = 3\nvalue = [3, 0]"] ;
137 -> 138 ;
139 [label="total intl calls <= 0.421\nentropy = 0.863\nsamples = 28\nvalue = [8, 20]"] ;
137 -> 139 ;
140 [label="total eve minutes <= 0.085\nentropy = 0.722\nsamples = 25\nvalue = [5, 20]"] ;
139 -> 140 ;
141 [label="entropy = 0.0\nsamples = 11\nvalue = [0, 11]"] ;
140 -> 141 ;
142 [label="account length <= -0.049\nentropy = 0.94\nsamples = 14\nvalue = [5, 9]"] ;
140 -> 142 ;
143 [label="number customer service calls <= 0.159\nentropy = 0.991\nsamples = 9\nvalue = [5, 4]"] ;
142 -> 143 ;
144 [label="total night calls <= 0.965\nentropy = 0.918\nsamples = 6\nvalue = [2, 4]"] ;
143 -> 144 ;
145 [label="entropy = 0.0\nsamples = 4\nvalue = [0, 4]"] ;
144 -> 145 ;
146 [label="entropy = 0.0\nsamples = 2\nvalue = [2, 0]"] ;
144 -> 146 ;
147 [label="entropy = 0.0\nsamples = 3\nvalue = [3, 0]"] ;
143 -> 147 ;
148 [label="entropy = 0.0\nsamples = 5\nvalue = [0, 5]"] ;
142 -> 148 ;
149 [label="entropy = 0.0\nsamples = 3\nvalue = [3, 0]"] ;
139 -> 149 ;
150 [label="total intl minutes <= -0.289\nentropy = 0.494\nsamples = 37\nvalue = [33, 4]"] ;
128 -> 150 ;
151 [label="total eve minutes <= -0.057\nentropy = 0.837\nsamples = 15\nvalue = [11, 4]"] ;
150 -> 151 ;
152 [label="total night minutes <= 0.294\nentropy = 1.0\nsamples = 8\nvalue = [4, 4]"] ;
151 -> 152 ;
153 [label="total eve calls <= 0.484\nentropy = 0.722\nsamples = 5\nvalue = [4, 1]"] ;
152 -> 153 ;
154 [label="entropy = 0.0\nsamples = 4\nvalue = [4, 0]"] ;
153 -> 154 ;
155 [label="entropy = 0.0\nsamples = 1\nvalue = [0, 1]"] ;
153 -> 155 ;
156 [label="entropy = 0.0\nsamples = 3\nvalue = [0, 3]"] ;
152 -> 156 ;
157 [label="entropy = 0.0\nsamples = 7\nvalue = [7, 0]"] ;
151 -> 157 ;
158 [label="entropy = 0.0\nsamples = 22\nvalue = [22, 0]"] ;
150 -> 158 ;
159 [label="total eve minutes <= -0.111\nentropy = 0.684\nsamples = 11\nvalue = [2, 9]"] ;
127 -> 159 ;
160 [label="entropy = 0.0\nsamples = 8\nvalue = [0, 8]"] ;
159 -> 160 ;
161 [label="number vmail messages <= 0.614\nentropy = 0.918\nsamples = 3\nvalue = [2, 1]"] ;
159 -> 161 ;
162 [label="entropy = 0.0\nsamples = 2\nvalue = [2, 0]"] ;
161 -> 162 ;
163 [label="entropy = 0.0\nsamples = 1\nvalue = [0, 1]"] ;
161 -> 163 ;
164 [label="entropy = 0.0\nsamples = 22\nvalue = [22, 0]"] ;
126 -> 164 ;
165 [label="total intl minutes <= 1.761\nentropy = 0.246\nsamples = 49\nvalue = [47, 2]"] ;
125 -> 165 ;
166 [label="entropy = 0.0\nsamples = 45\nvalue = [45, 0]"] ;
165 -> 166 ;
167 [label="total night calls <= 1.19\nentropy = 1.0\nsamples = 4\nvalue = [2, 2]"] ;
165 -> 167 ;
168 [label="entropy = 0.0\nsamples = 2\nvalue = [2, 0]"] ;
167 -> 168 ;
169 [label="entropy = 0.0\nsamples = 2\nvalue = [0, 2]"] ;
167 -> 169 ;
170 [label="number customer service calls <= -0.412\nentropy = 0.998\nsamples = 85\nvalue = [40, 45]"] ;
124 -> 170 ;
171 [label="total day calls <= -0.214\nentropy = 0.842\nsamples = 37\nvalue = [27, 10]"] ;
170 -> 171 ;
172 [label="entropy = 0.0\nsamples = 19\nvalue = [19, 0]"] ;
171 -> 172 ;
173 [label="account length <= -0.074\nentropy = 0.991\nsamples = 18\nvalue = [8, 10]"] ;
171 -> 173 ;
174 [label="entropy = 0.0\nsamples = 5\nvalue = [5, 0]"] ;
173 -> 174 ;
175 [label="total day minutes <= -0.376\nentropy = 0.779\nsamples = 13\nvalue = [3, 10]"] ;
173 -> 175 ;
176 [label="entropy = 0.0\nsamples = 2\nvalue = [2, 0]"] ;
175 -> 176 ;
177 [label="total night minutes <= 1.741\nentropy = 0.439\nsamples = 11\nvalue = [1, 10]"] ;
175 -> 177 ;
178 [label="entropy = 0.0\nsamples = 10\nvalue = [0, 10]"] ;
177 -> 178 ;
179 [label="entropy = 0.0\nsamples = 1\nvalue = [1, 0]"] ;
177 -> 179 ;
180 [label="number customer service calls <= 0.329\nentropy = 0.843\nsamples = 48\nvalue = [13, 35]"] ;
170 -> 180 ;
181 [label="entropy = 0.0\nsamples = 22\nvalue = [0, 22]"] ;
180 -> 181 ;
182 [label="total day calls <= -1.143\nentropy = 1.0\nsamples = 26\nvalue = [13, 13]"] ;
180 -> 182 ;
183 [label="entropy = 0.0\nsamples = 6\nvalue = [0, 6]"] ;
182 -> 183 ;
184 [label="total day minutes <= -1.508\nentropy = 0.934\nsamples = 20\nvalue = [13, 7]"] ;
182 -> 184 ;
185 [label="entropy = 0.0\nsamples = 4\nvalue = [0, 4]"] ;
184 -> 185 ;
186 [label="total day minutes <= -0.137\nentropy = 0.696\nsamples = 16\nvalue = [13, 3]"] ;
184 -> 186 ;
187 [label="entropy = 0.0\nsamples = 9\nvalue = [9, 0]"] ;
186 -> 187 ;
188 [label="total night calls <= 1.005\nentropy = 0.985\nsamples = 7\nvalue = [4, 3]"] ;
186 -> 188 ;
189 [label="entropy = 0.0\nsamples = 3\nvalue = [3, 0]"] ;
188 -> 189 ;
190 [label="total intl calls <= -0.398\nentropy = 0.811\nsamples = 4\nvalue = [1, 3]"] ;
188 -> 190 ;
191 [label="entropy = 0.0\nsamples = 1\nvalue = [1, 0]"] ;
190 -> 191 ;
192 [label="entropy = 0.0\nsamples = 3\nvalue = [0, 3]"] ;
190 -> 192 ;
193 [label="entropy = 0.0\nsamples = 20\nvalue = [20, 0]"] ;
123 -> 193 ;
194 [label="total night minutes <= -1.079\nentropy = 0.337\nsamples = 128\nvalue = [120, 8]"] ;
112 -> 194 ;
195 [label="entropy = 0.0\nsamples = 2\nvalue = [0, 2]"] ;
194 -> 195 ;
196 [label="total day minutes <= 0.38\nentropy = 0.276\nsamples = 126\nvalue = [120, 6]"] ;
194 -> 196 ;
197 [label="total night calls <= 0.838\nentropy = 0.135\nsamples = 106\nvalue = [104, 2]"] ;
196 -> 197 ;
198 [label="entropy = 0.0\nsamples = 75\nvalue = [75, 0]"] ;
197 -> 198 ;
199 [label="total day calls <= 1.131\nentropy = 0.345\nsamples = 31\nvalue = [29, 2]"] ;
197 -> 199 ;
200 [label="total night calls <= 0.889\nentropy = 0.211\nsamples = 30\nvalue = [29, 1]"] ;
199 -> 200 ;
201 [label="number vmail messages <= 0.979\nentropy = 1.0\nsamples = 2\nvalue = [1, 1]"] ;
200 -> 201 ;
202 [label="entropy = 0.0\nsamples = 1\nvalue = [0, 1]"] ;
201 -> 202 ;
203 [label="entropy = 0.0\nsamples = 1\nvalue = [1, 0]"] ;
201 -> 203 ;
204 [label="entropy = 0.0\nsamples = 28\nvalue = [28, 0]"] ;
200 -> 204 ;
205 [label="entropy = 0.0\nsamples = 1\nvalue = [0, 1]"] ;
199 -> 205 ;
206 [label="total eve minutes <= 0.185\nentropy = 0.722\nsamples = 20\nvalue = [16, 4]"] ;
196 -> 206 ;
207 [label="entropy = 0.0\nsamples = 12\nvalue = [12, 0]"] ;
206 -> 207 ;
208 [label="total day minutes <= 0.624\nentropy = 1.0\nsamples = 8\nvalue = [4, 4]"] ;
206 -> 208 ;
209 [label="total day minutes <= 0.443\nentropy = 0.722\nsamples = 5\nvalue = [4, 1]"] ;
208 -> 209 ;
210 [label="entropy = 0.0\nsamples = 1\nvalue = [0, 1]"] ;
209 -> 210 ;
211 [label="entropy = 0.0\nsamples = 4\nvalue = [4, 0]"] ;
209 -> 211 ;
212 [label="entropy = 0.0\nsamples = 3\nvalue = [0, 3]"] ;
208 -> 212 ;
213 [label="entropy = 0.0\nsamples = 78\nvalue = [78, 0]"] ;
111 -> 213 ;
214 [label="total night calls <= -0.06\nentropy = 0.957\nsamples = 95\nvalue = [59, 36]"] ;
110 -> 214 ;
215 [label="total intl minutes <= 1.258\nentropy = 0.523\nsamples = 17\nvalue = [2, 15]"] ;
214 -> 215 ;
216 [label="entropy = 0.0\nsamples = 15\nvalue = [0, 15]"] ;
215 -> 216 ;
217 [label="entropy = 0.0\nsamples = 2\nvalue = [2, 0]"] ;
215 -> 217 ;
218 [label="account length <= -0.197\nentropy = 0.84\nsamples = 78\nvalue = [57, 21]"] ;
214 -> 218 ;
219 [label="entropy = 0.0\nsamples = 27\nvalue = [27, 0]"] ;
218 -> 219 ;
220 [label="total intl minutes <= -0.264\nentropy = 0.977\nsamples = 51\nvalue = [30, 21]"] ;
218 -> 220 ;
221 [label="total eve calls <= -0.22\nentropy = 0.902\nsamples = 22\nvalue = [7, 15]"] ;
220 -> 221 ;
222 [label="entropy = 0.0\nsamples = 4\nvalue = [4, 0]"] ;
221 -> 222 ;
223 [label="total night minutes <= 0.203\nentropy = 0.65\nsamples = 18\nvalue = [3, 15]"] ;
221 -> 223 ;
224 [label="total day minutes <= -0.339\nentropy = 1.0\nsamples = 6\nvalue = [3, 3]"] ;
223 -> 224 ;
225 [label="entropy = 0.0\nsamples = 2\nvalue = [2, 0]"] ;
224 -> 225 ;
226 [label="total intl minutes <= -0.372\nentropy = 0.811\nsamples = 4\nvalue = [1, 3]"] ;
224 -> 226 ;
227 [label="entropy = 0.0\nsamples = 3\nvalue = [0, 3]"] ;
226 -> 227 ;
228 [label="entropy = 0.0\nsamples = 1\nvalue = [1, 0]"] ;
226 -> 228 ;
229 [label="entropy = 0.0\nsamples = 12\nvalue = [0, 12]"] ;
223 -> 229 ;
230 [label="total night calls <= 1.562\nentropy = 0.736\nsamples = 29\nvalue = [23, 6]"] ;
220 -> 230 ;
231 [label="entropy = 0.0\nsamples = 21\nvalue = [21, 0]"] ;
230 -> 231 ;
232 [label="account length <= 1.002\nentropy = 0.811\nsamples = 8\nvalue = [2, 6]"] ;
230 -> 232 ;
233 [label="entropy = 0.0\nsamples = 2\nvalue = [2, 0]"] ;
232 -> 233 ;
234 [label="entropy = 0.0\nsamples = 6\nvalue = [0, 6]"] ;
232 -> 234 ;
235 [label="entropy = 0.0\nsamples = 41\nvalue = [0, 41]"] ;
5 -> 235 ;
236 [label="total day calls <= 1.05\nentropy = 0.106\nsamples = 288\nvalue = [284, 4]"] ;
4 -> 236 ;
237 [label="total night minutes <= 1.081\nentropy = 0.037\nsamples = 255\nvalue = [254, 1]"] ;
236 -> 237 ;
238 [label="entropy = 0.0\nsamples = 219\nvalue = [219, 0]"] ;
237 -> 238 ;
239 [label="total night minutes <= 1.091\nentropy = 0.183\nsamples = 36\nvalue = [35, 1]"] ;
237 -> 239 ;
240 [label="entropy = 0.0\nsamples = 1\nvalue = [0, 1]"] ;
239 -> 240 ;
241 [label="entropy = 0.0\nsamples = 35\nvalue = [35, 0]"] ;
239 -> 241 ;
242 [label="total intl minutes <= -1.554\nentropy = 0.439\nsamples = 33\nvalue = [30, 3]"] ;
236 -> 242 ;
243 [label="account length <= 1.794\nentropy = 0.918\nsamples = 3\nvalue = [1, 2]"] ;
242 -> 243 ;
244 [label="entropy = 0.0\nsamples = 2\nvalue = [0, 2]"] ;
243 -> 244 ;
245 [label="entropy = 0.0\nsamples = 1\nvalue = [1, 0]"] ;
243 -> 245 ;
246 [label="total eve calls <= -1.436\nentropy = 0.211\nsamples = 30\nvalue = [29, 1]"] ;
242 -> 246 ;
247 [label="total eve minutes <= -0.089\nentropy = 0.811\nsamples = 4\nvalue = [3, 1]"] ;
246 -> 247 ;
248 [label="entropy = 0.0\nsamples = 3\nvalue = [3, 0]"] ;
247 -> 248 ;
249 [label="entropy = 0.0\nsamples = 1\nvalue = [0, 1]"] ;
247 -> 249 ;
250 [label="entropy = 0.0\nsamples = 26\nvalue = [26, 0]"] ;
246 -> 250 ;
251 [label="total eve minutes <= 0.778\nentropy = 0.984\nsamples = 414\nvalue = [238, 176]"] ;
3 -> 251 ;
252 [label="account length <= 1.078\nentropy = 0.573\nsamples = 236\nvalue = [204, 32]"] ;
251 -> 252 ;
253 [label="total day calls <= 0.461\nentropy = 0.648\nsamples = 193\nvalue = [161, 32]"] ;
252 -> 253 ;
254 [label="total intl minutes <= 0.506\nentropy = 0.744\nsamples = 142\nvalue = [112, 30]"] ;
253 -> 254 ;
255 [label="total intl minutes <= -0.006\nentropy = 0.854\nsamples = 104\nvalue = [75, 29]"] ;
254 -> 255 ;
256 [label="number customer service calls <= -0.475\nentropy = 0.639\nsamples = 68\nvalue = [57, 11]"] ;
255 -> 256 ;
257 [label="number customer service calls <= -1.018\nentropy = 0.982\nsamples = 19\nvalue = [11, 8]"] ;
256 -> 257 ;
258 [label="total eve minutes <= -0.655\nentropy = 0.75\nsamples = 14\nvalue = [11, 3]"] ;
257 -> 258 ;
259 [label="total night calls <= -0.307\nentropy = 0.985\nsamples = 7\nvalue = [4, 3]"] ;
258 -> 259 ;
260 [label="entropy = 0.0\nsamples = 3\nvalue = [0, 3]"] ;
259 -> 260 ;
261 [label="entropy = 0.0\nsamples = 4\nvalue = [4, 0]"] ;
259 -> 261 ;
262 [label="entropy = 0.0\nsamples = 7\nvalue = [7, 0]"] ;
258 -> 262 ;
263 [label="entropy = 0.0\nsamples = 5\nvalue = [0, 5]"] ;
257 -> 263 ;
264 [label="number vmail messages <= 1.6\nentropy = 0.332\nsamples = 49\nvalue = [46, 3]"] ;
256 -> 264 ;
265 [label="entropy = 0.0\nsamples = 37\nvalue = [37, 0]"] ;
264 -> 265 ;
266 [label="number vmail messages <= 2.02\nentropy = 0.811\nsamples = 12\nvalue = [9, 3]"] ;
264 -> 266 ;
267 [label="total intl calls <= 0.008\nentropy = 0.971\nsamples = 5\nvalue = [2, 3]"] ;
266 -> 267 ;
268 [label="entropy = 0.0\nsamples = 2\nvalue = [2, 0]"] ;
267 -> 268 ;
269 [label="entropy = 0.0\nsamples = 3\nvalue = [0, 3]"] ;
267 -> 269 ;
270 [label="entropy = 0.0\nsamples = 7\nvalue = [7, 0]"] ;
266 -> 270 ;
271 [label="total eve minutes <= -0.663\nentropy = 1.0\nsamples = 36\nvalue = [18, 18]"] ;
255 -> 271 ;
272 [label="entropy = 0.0\nsamples = 10\nvalue = [10, 0]"] ;
271 -> 272 ;
273 [label="total eve minutes <= 0.439\nentropy = 0.89\nsamples = 26\nvalue = [8, 18]"] ;
271 -> 273 ;
274 [label="total eve calls <= 0.597\nentropy = 0.755\nsamples = 23\nvalue = [5, 18]"] ;
273 -> 274 ;
275 [label="total day calls <= 0.252\nentropy = 0.94\nsamples = 14\nvalue = [5, 9]"] ;
274 -> 275 ;
276 [label="total eve minutes <= -0.164\nentropy = 0.991\nsamples = 9\nvalue = [5, 4]"] ;
275 -> 276 ;
277 [label="entropy = 0.0\nsamples = 3\nvalue = [3, 0]"] ;
276 -> 277 ;
278 [label="total night calls <= -0.287\nentropy = 0.918\nsamples = 6\nvalue = [2, 4]"] ;
276 -> 278 ;
279 [label="account length <= -0.371\nentropy = 0.722\nsamples = 5\nvalue = [1, 4]"] ;
278 -> 279 ;
280 [label="entropy = 0.0\nsamples = 4\nvalue = [0, 4]"] ;
279 -> 280 ;
281 [label="entropy = 0.0\nsamples = 1\nvalue = [1, 0]"] ;
279 -> 281 ;
282 [label="entropy = 0.0\nsamples = 1\nvalue = [1, 0]"] ;
278 -> 282 ;
283 [label="entropy = 0.0\nsamples = 5\nvalue = [0, 5]"] ;
275 -> 283 ;
284 [label="entropy = 0.0\nsamples = 9\nvalue = [0, 9]"] ;
274 -> 284 ;
285 [label="entropy = 0.0\nsamples = 3\nvalue = [3, 0]"] ;
273 -> 285 ;
286 [label="account length <= -1.923\nentropy = 0.176\nsamples = 38\nvalue = [37, 1]"] ;
254 -> 286 ;
287 [label="entropy = 0.0\nsamples = 1\nvalue = [0, 1]"] ;
286 -> 287 ;
288 [label="entropy = 0.0\nsamples = 37\nvalue = [37, 0]"] ;
286 -> 288 ;
289 [label="total day calls <= 2.334\nentropy = 0.239\nsamples = 51\nvalue = [49, 2]"] ;
253 -> 289 ;
290 [label="entropy = 0.0\nsamples = 49\nvalue = [49, 0]"] ;
289 -> 290 ;
291 [label="entropy = 0.0\nsamples = 2\nvalue = [0, 2]"] ;
289 -> 291 ;
292 [label="entropy = 0.0\nsamples = 43\nvalue = [43, 0]"] ;
252 -> 292 ;
293 [label="number vmail messages <= 0.029\nentropy = 0.704\nsamples = 178\nvalue = [34, 144]"] ;
251 -> 293 ;
294 [label="total night minutes <= -0.469\nentropy = 0.503\nsamples = 162\nvalue = [18, 144]"] ;
293 -> 294 ;
295 [label="total day minutes <= 1.134\nentropy = 0.439\nsamples = 11\nvalue = [10, 1]"] ;
294 -> 295 ;
296 [label="entropy = 0.0\nsamples = 10\nvalue = [10, 0]"] ;
295 -> 296 ;
297 [label="entropy = 0.0\nsamples = 1\nvalue = [0, 1]"] ;
295 -> 297 ;
298 [label="total night minutes <= 0.461\nentropy = 0.299\nsamples = 151\nvalue = [8, 143]"] ;
294 -> 298 ;
299 [label="total eve minutes <= 0.911\nentropy = 0.503\nsamples = 72\nvalue = [8, 64]"] ;
298 -> 299 ;
300 [label="total night calls <= -0.695\nentropy = 0.985\nsamples = 7\nvalue = [4, 3]"] ;
299 -> 300 ;
301 [label="entropy = 0.0\nsamples = 3\nvalue = [0, 3]"] ;
300 -> 301 ;
302 [label="entropy = 0.0\nsamples = 4\nvalue = [4, 0]"] ;
300 -> 302 ;
303 [label="total intl minutes <= -0.478\nentropy = 0.334\nsamples = 65\nvalue = [4, 61]"] ;
299 -> 303 ;
304 [label="total day calls <= 0.203\nentropy = 0.946\nsamples = 11\nvalue = [4, 7]"] ;
303 -> 304 ;
305 [label="entropy = 0.0\nsamples = 2\nvalue = [2, 0]"] ;
304 -> 305 ;
306 [label="number customer service calls <= 0.712\nentropy = 0.764\nsamples = 9\nvalue = [2, 7]"] ;
304 -> 306 ;
307 [label="entropy = 0.0\nsamples = 6\nvalue = [0, 6]"] ;
306 -> 307 ;
308 [label="total intl calls <= 0.008\nentropy = 0.918\nsamples = 3\nvalue = [2, 1]"] ;
306 -> 308 ;
309 [label="entropy = 0.0\nsamples = 2\nvalue = [2, 0]"] ;
308 -> 309 ;
310 [label="entropy = 0.0\nsamples = 1\nvalue = [0, 1]"] ;
308 -> 310 ;
311 [label="entropy = 0.0\nsamples = 54\nvalue = [0, 54]"] ;
303 -> 311 ;
312 [label="entropy = 0.0\nsamples = 79\nvalue = [0, 79]"] ;
298 -> 312 ;
313 [label="entropy = 0.0\nsamples = 16\nvalue = [16, 0]"] ;
293 -> 313 ;
314 [label="total day minutes <= -0.101\nentropy = 0.6\nsamples = 712\nvalue = [104, 608]"] ;
2 -> 314 ;
315 [label="total eve minutes <= -0.201\nentropy = 0.275\nsamples = 571\nvalue = [27, 544]"] ;
314 -> 315 ;
316 [label="entropy = 0.0\nsamples = 287\nvalue = [0, 287]"] ;
315 -> 316 ;
317 [label="total day minutes <= -0.665\nentropy = 0.453\nsamples = 284\nvalue = [27, 257]"] ;
315 -> 317 ;
318 [label="account length <= -1.965\nentropy = 0.138\nsamples = 206\nvalue = [4, 202]"] ;
317 -> 318 ;
319 [label="entropy = 0.0\nsamples = 2\nvalue = [2, 0]"] ;
318 -> 319 ;
320 [label="total day calls <= -1.414\nentropy = 0.079\nsamples = 204\nvalue = [2, 202]"] ;
318 -> 320 ;
321 [label="total intl calls <= 0.345\nentropy = 0.722\nsamples = 10\nvalue = [2, 8]"] ;
320 -> 321 ;
322 [label="entropy = 0.0\nsamples = 8\nvalue = [0, 8]"] ;
321 -> 322 ;
323 [label="entropy = 0.0\nsamples = 2\nvalue = [2, 0]"] ;
321 -> 323 ;
324 [label="entropy = 0.0\nsamples = 194\nvalue = [0, 194]"] ;
320 -> 324 ;
325 [label="total eve minutes <= 0.619\nentropy = 0.875\nsamples = 78\nvalue = [23, 55]"] ;
317 -> 325 ;
326 [label="total night minutes <= 0.145\nentropy = 0.678\nsamples = 67\nvalue = [12, 55]"] ;
325 -> 326 ;
327 [label="total night calls <= -0.464\nentropy = 0.246\nsamples = 49\nvalue = [2, 47]"] ;
326 -> 327 ;
328 [label="total day minutes <= -0.33\nentropy = 0.863\nsamples = 7\nvalue = [2, 5]"] ;
327 -> 328 ;
329 [label="entropy = 0.0\nsamples = 5\nvalue = [0, 5]"] ;
328 -> 329 ;
330 [label="entropy = 0.0\nsamples = 2\nvalue = [2, 0]"] ;
328 -> 330 ;
331 [label="entropy = 0.0\nsamples = 42\nvalue = [0, 42]"] ;
327 -> 331 ;
332 [label="total day minutes <= -0.376\nentropy = 0.991\nsamples = 18\nvalue = [10, 8]"] ;
326 -> 332 ;
333 [label="total night minutes <= 0.95\nentropy = 0.845\nsamples = 11\nvalue = [3, 8]"] ;
332 -> 333 ;
334 [label="entropy = 0.0\nsamples = 8\nvalue = [0, 8]"] ;
333 -> 334 ;
335 [label="entropy = 0.0\nsamples = 3\nvalue = [3, 0]"] ;
333 -> 335 ;
336 [label="entropy = 0.0\nsamples = 7\nvalue = [7, 0]"] ;
332 -> 336 ;
337 [label="entropy = 0.0\nsamples = 11\nvalue = [11, 0]"] ;
325 -> 337 ;
338 [label="total eve minutes <= -0.49\nentropy = 0.994\nsamples = 141\nvalue = [77, 64]"] ;
314 -> 338 ;
339 [label="total day minutes <= 0.41\nentropy = 0.793\nsamples = 67\nvalue = [16, 51]"] ;
338 -> 339 ;
340 [label="total night minutes <= 0.721\nentropy = 0.51\nsamples = 53\nvalue = [6, 47]"] ;
339 -> 340 ;
341 [label="total eve minutes <= -0.753\nentropy = 0.258\nsamples = 46\nvalue = [2, 44]"] ;
340 -> 341 ;
342 [label="entropy = 0.0\nsamples = 37\nvalue = [0, 37]"] ;
341 -> 342 ;
343 [label="total day minutes <= 0.054\nentropy = 0.764\nsamples = 9\nvalue = [2, 7]"] ;
341 -> 343 ;
344 [label="entropy = 0.0\nsamples = 7\nvalue = [0, 7]"] ;
343 -> 344 ;
345 [label="entropy = 0.0\nsamples = 2\nvalue = [2, 0]"] ;
343 -> 345 ;
346 [label="total eve minutes <= -0.676\nentropy = 0.985\nsamples = 7\nvalue = [4, 3]"] ;
340 -> 346 ;
347 [label="account length <= -1.479\nentropy = 0.722\nsamples = 5\nvalue = [4, 1]"] ;
346 -> 347 ;
348 [label="entropy = 0.0\nsamples = 1\nvalue = [0, 1]"] ;
347 -> 348 ;
349 [label="entropy = 0.0\nsamples = 4\nvalue = [4, 0]"] ;
347 -> 349 ;
350 [label="entropy = 0.0\nsamples = 2\nvalue = [0, 2]"] ;
346 -> 350 ;
351 [label="total eve minutes <= -1.321\nentropy = 0.863\nsamples = 14\nvalue = [10, 4]"] ;
339 -> 351 ;
352 [label="total eve calls <= 1.249\nentropy = 0.722\nsamples = 5\nvalue = [1, 4]"] ;
351 -> 352 ;
353 [label="entropy = 0.0\nsamples = 4\nvalue = [0, 4]"] ;
352 -> 353 ;
354 [label="entropy = 0.0\nsamples = 1\nvalue = [1, 0]"] ;
352 -> 354 ;
355 [label="entropy = 0.0\nsamples = 9\nvalue = [9, 0]"] ;
351 -> 355 ;
356 [label="total night calls <= -0.086\nentropy = 0.671\nsamples = 74\nvalue = [61, 13]"] ;
338 -> 356 ;
357 [label="entropy = 0.0\nsamples = 33\nvalue = [33, 0]"] ;
356 -> 357 ;
358 [label="total eve calls <= -0.207\nentropy = 0.901\nsamples = 41\nvalue = [28, 13]"] ;
356 -> 358 ;
359 [label="entropy = 0.0\nsamples = 12\nvalue = [12, 0]"] ;
358 -> 359 ;
360 [label="total eve calls <= 0.245\nentropy = 0.992\nsamples = 29\nvalue = [16, 13]"] ;
358 -> 360 ;
361 [label="total day calls <= -0.812\nentropy = 0.863\nsamples = 14\nvalue = [4, 10]"] ;
360 -> 361 ;
362 [label="entropy = 0.0\nsamples = 3\nvalue = [3, 0]"] ;
361 -> 362 ;
363 [label="total night calls <= 0.017\nentropy = 0.439\nsamples = 11\nvalue = [1, 10]"] ;
361 -> 363 ;
364 [label="entropy = 0.0\nsamples = 1\nvalue = [1, 0]"] ;
363 -> 364 ;
365 [label="entropy = 0.0\nsamples = 10\nvalue = [0, 10]"] ;
363 -> 365 ;
366 [label="total intl calls <= -0.664\nentropy = 0.722\nsamples = 15\nvalue = [12, 3]"] ;
360 -> 366 ;
367 [label="entropy = 0.0\nsamples = 2\nvalue = [0, 2]"] ;
366 -> 367 ;
368 [label="number customer service calls <= 1.518\nentropy = 0.391\nsamples = 13\nvalue = [12, 1]"] ;
366 -> 368 ;
369 [label="entropy = 0.0\nsamples = 1\nvalue = [0, 1]"] ;
368 -> 369 ;
370 [label="entropy = 0.0\nsamples = 12\nvalue = [12, 0]"] ;
368 -> 370 ;
371 [label="voice mail plan <= 0.882\nentropy = 0.703\nsamples = 976\nvalue = [186, 790]"] ;
1 -> 371 ;
372 [label="total eve minutes <= -0.252\nentropy = 0.515\nsamples = 886\nvalue = [102, 784]"] ;
371 -> 372 ;
373 [label="total day minutes <= 1.538\nentropy = 0.983\nsamples = 172\nvalue = [73, 99]"] ;
372 -> 373 ;
374 [label="total night minutes <= 1.623\nentropy = 0.469\nsamples = 50\nvalue = [45, 5]"] ;
373 -> 374 ;
375 [label="total intl calls <= -0.804\nentropy = 0.258\nsamples = 46\nvalue = [44, 2]"] ;
374 -> 375 ;
376 [label="account length <= 0.796\nentropy = 0.567\nsamples = 15\nvalue = [13, 2]"] ;
375 -> 376 ;
377 [label="total day calls <= -0.635\nentropy = 0.371\nsamples = 14\nvalue = [13, 1]"] ;
376 -> 377 ;
378 [label="total day minutes <= 1.436\nentropy = 0.918\nsamples = 3\nvalue = [2, 1]"] ;
377 -> 378 ;
379 [label="entropy = 0.0\nsamples = 2\nvalue = [2, 0]"] ;
378 -> 379 ;
380 [label="entropy = 0.0\nsamples = 1\nvalue = [0, 1]"] ;
378 -> 380 ;
381 [label="entropy = 0.0\nsamples = 11\nvalue = [11, 0]"] ;
377 -> 381 ;
382 [label="entropy = 0.0\nsamples = 1\nvalue = [0, 1]"] ;
376 -> 382 ;
383 [label="entropy = 0.0\nsamples = 31\nvalue = [31, 0]"] ;
375 -> 383 ;
384 [label="total intl minutes <= 0.319\nentropy = 0.811\nsamples = 4\nvalue = [1, 3]"] ;
374 -> 384 ;
385 [label="entropy = 0.0\nsamples = 3\nvalue = [0, 3]"] ;
384 -> 385 ;
386 [label="entropy = 0.0\nsamples = 1\nvalue = [1, 0]"] ;
384 -> 386 ;
387 [label="total eve minutes <= -1.117\nentropy = 0.777\nsamples = 122\nvalue = [28, 94]"] ;
373 -> 387 ;
388 [label="entropy = 0.0\nsamples = 14\nvalue = [14, 0]"] ;
387 -> 388 ;
389 [label="total day minutes <= 1.867\nentropy = 0.556\nsamples = 108\nvalue = [14, 94]"] ;
387 -> 389 ;
390 [label="total night minutes <= 0.266\nentropy = 0.89\nsamples = 39\nvalue = [12, 27]"] ;
389 -> 390 ;
391 [label="total intl minutes <= 2.097\nentropy = 0.75\nsamples = 14\nvalue = [11, 3]"] ;
390 -> 391 ;
392 [label="number customer service calls <= -0.808\nentropy = 0.414\nsamples = 12\nvalue = [11, 1]"] ;
391 -> 392 ;
393 [label="entropy = 0.0\nsamples = 1\nvalue = [0, 1]"] ;
392 -> 393 ;
394 [label="entropy = 0.0\nsamples = 11\nvalue = [11, 0]"] ;
392 -> 394 ;
395 [label="entropy = 0.0\nsamples = 2\nvalue = [0, 2]"] ;
391 -> 395 ;
396 [label="total night calls <= -1.405\nentropy = 0.242\nsamples = 25\nvalue = [1, 24]"] ;
390 -> 396 ;
397 [label="entropy = 0.0\nsamples = 1\nvalue = [1, 0]"] ;
396 -> 397 ;
398 [label="entropy = 0.0\nsamples = 24\nvalue = [0, 24]"] ;
396 -> 398 ;
399 [label="total night minutes <= -1.076\nentropy = 0.189\nsamples = 69\nvalue = [2, 67]"] ;
389 -> 399 ;
400 [label="total day calls <= -1.185\nentropy = 0.918\nsamples = 6\nvalue = [2, 4]"] ;
399 -> 400 ;
401 [label="entropy = 0.0\nsamples = 4\nvalue = [0, 4]"] ;
400 -> 401 ;
402 [label="entropy = 0.0\nsamples = 2\nvalue = [2, 0]"] ;
400 -> 402 ;
403 [label="entropy = 0.0\nsamples = 63\nvalue = [0, 63]"] ;
399 -> 403 ;
404 [label="total day minutes <= 1.537\nentropy = 0.245\nsamples = 714\nvalue = [29, 685]"] ;
372 -> 404 ;
405 [label="total night minutes <= 0.207\nentropy = 0.522\nsamples = 230\nvalue = [27, 203]"] ;
404 -> 405 ;
406 [label="total eve minutes <= 0.817\nentropy = 0.839\nsamples = 97\nvalue = [26, 71]"] ;
405 -> 406 ;
407 [label="account length <= -1.247\nentropy = 0.928\nsamples = 35\nvalue = [23, 12]"] ;
406 -> 407 ;
408 [label="total night calls <= -0.463\nentropy = 0.503\nsamples = 9\nvalue = [1, 8]"] ;
407 -> 408 ;
409 [label="entropy = 0.0\nsamples = 1\nvalue = [1, 0]"] ;
408 -> 409 ;
410 [label="entropy = 0.0\nsamples = 8\nvalue = [0, 8]"] ;
408 -> 410 ;
411 [label="total night minutes <= -0.614\nentropy = 0.619\nsamples = 26\nvalue = [22, 4]"] ;
407 -> 411 ;
412 [label="entropy = 0.0\nsamples = 12\nvalue = [12, 0]"] ;
411 -> 412 ;
413 [label="total eve minutes <= 0.47\nentropy = 0.863\nsamples = 14\nvalue = [10, 4]"] ;
411 -> 413 ;
414 [label="total eve minutes <= -0.163\nentropy = 0.439\nsamples = 11\nvalue = [10, 1]"] ;
413 -> 414 ;
415 [label="entropy = 0.0\nsamples = 1\nvalue = [0, 1]"] ;
414 -> 415 ;
416 [label="entropy = 0.0\nsamples = 10\nvalue = [10, 0]"] ;
414 -> 416 ;
417 [label="entropy = 0.0\nsamples = 3\nvalue = [0, 3]"] ;
413 -> 417 ;
418 [label="total intl minutes <= -1.14\nentropy = 0.28\nsamples = 62\nvalue = [3, 59]"] ;
406 -> 418 ;
419 [label="entropy = 0.0\nsamples = 2\nvalue = [2, 0]"] ;
418 -> 419 ;
420 [label="total night minutes <= -1.6\nentropy = 0.122\nsamples = 60\nvalue = [1, 59]"] ;
418 -> 420 ;
421 [label="total day calls <= 0.427\nentropy = 1.0\nsamples = 2\nvalue = [1, 1]"] ;
420 -> 421 ;
422 [label="entropy = 0.0\nsamples = 1\nvalue = [1, 0]"] ;
421 -> 422 ;
423 [label="entropy = 0.0\nsamples = 1\nvalue = [0, 1]"] ;
421 -> 423 ;
424 [label="entropy = 0.0\nsamples = 58\nvalue = [0, 58]"] ;
420 -> 424 ;
425 [label="total intl minutes <= -2.252\nentropy = 0.064\nsamples = 133\nvalue = [1, 132]"] ;
405 -> 425 ;
426 [label="total eve minutes <= 0.747\nentropy = 1.0\nsamples = 2\nvalue = [1, 1]"] ;
425 -> 426 ;
427 [label="entropy = 0.0\nsamples = 1\nvalue = [1, 0]"] ;
426 -> 427 ;
428 [label="entropy = 0.0\nsamples = 1\nvalue = [0, 1]"] ;
426 -> 428 ;
429 [label="entropy = 0.0\nsamples = 131\nvalue = [0, 131]"] ;
425 -> 429 ;
430 [label="total night minutes <= -2.048\nentropy = 0.039\nsamples = 484\nvalue = [2, 482]"] ;
404 -> 430 ;
431 [label="entropy = 0.0\nsamples = 1\nvalue = [1, 0]"] ;
430 -> 431 ;
432 [label="total night calls <= -1.933\nentropy = 0.021\nsamples = 483\nvalue = [1, 482]"] ;
430 -> 432 ;
433 [label="total intl minutes <= -1.285\nentropy = 0.31\nsamples = 18\nvalue = [1, 17]"] ;
432 -> 433 ;
434 [label="entropy = 0.0\nsamples = 1\nvalue = [1, 0]"] ;
433 -> 434 ;
435 [label="entropy = 0.0\nsamples = 17\nvalue = [0, 17]"] ;
433 -> 435 ;
436 [label="entropy = 0.0\nsamples = 465\nvalue = [0, 465]"] ;
432 -> 436 ;
437 [label="total intl minutes <= -1.177\nentropy = 0.353\nsamples = 90\nvalue = [84, 6]"] ;
371 -> 437 ;
438 [label="number vmail messages <= 1.6\nentropy = 0.994\nsamples = 11\nvalue = [5, 6]"] ;
437 -> 438 ;
439 [label="entropy = 0.0\nsamples = 5\nvalue = [5, 0]"] ;
438 -> 439 ;
440 [label="entropy = 0.0\nsamples = 6\nvalue = [0, 6]"] ;
438 -> 440 ;
441 [label="entropy = 0.0\nsamples = 79\nvalue = [79, 0]"] ;
437 -> 441 ;
442 [label="international plan <= 0.999\nentropy = 0.623\nsamples = 1197\nvalue = [186, 1011]"] ;
0 -> 442 [labeldistance=2.5, labelangle=-45, headlabel="False"] ;
443 [label="entropy = 0.0\nsamples = 532\nvalue = [0, 532]"] ;
442 -> 443 ;
444 [label="total intl calls <= -0.602\nentropy = 0.855\nsamples = 665\nvalue = [186, 479]"] ;
442 -> 444 ;
445 [label="entropy = 0.0\nsamples = 251\nvalue = [0, 251]"] ;
444 -> 445 ;
446 [label="total intl minutes <= 1.025\nentropy = 0.993\nsamples = 414\nvalue = [186, 228]"] ;
444 -> 446 ;
447 [label="total day minutes <= 1.324\nentropy = 0.834\nsamples = 253\nvalue = [186, 67]"] ;
446 -> 447 ;
448 [label="number customer service calls <= 0.53\nentropy = 0.663\nsamples = 203\nvalue = [168, 35]"] ;
447 -> 448 ;
449 [label="total eve minutes <= 1.794\nentropy = 0.305\nsamples = 147\nvalue = [139, 8]"] ;
448 -> 449 ;
450 [label="total intl minutes <= 0.349\nentropy = 0.155\nsamples = 134\nvalue = [131, 3]"] ;
449 -> 450 ;
451 [label="entropy = 0.0\nsamples = 96\nvalue = [96, 0]"] ;
450 -> 451 ;
452 [label="total intl minutes <= 0.367\nentropy = 0.398\nsamples = 38\nvalue = [35, 3]"